{
    "inputSize": 4,
    "hiddenSize": 16,
    "outputSize": 3,
    "w1": [
        -0.10658618807792664,
        1.9767831563949586,
        0.10341363400220871,
        -0.16717559099197389,
        1.474807858467102,
        -0.42005985975265505,
        -0.40665119886398318,
        2.467308759689331,
        1.842336654663086,
        -0.6769165396690369,
        0.9085797071456909,
        2.197577476501465,
        -0.31769242882728579,
        -0.89836186170578,
        1.0999876260757447,
        -0.4468073546886444,
        -0.5609949827194214,
        3.6714818477630617,
        -0.9414898753166199,
        1.3360027074813843,
        1.1689941883087159,
        -0.82242351770401,
        -1.350040316581726,
        1.4475648403167725,
        1.3051981925964356,
        -0.9387861490249634,
        1.0579217672348023,
        2.6079049110412599,
        -1.2397557497024537,
        -1.4764128923416138,
        0.8536975979804993,
        -0.9282259941101074,
        8.989859580993653,
        -5.563716411590576,
        2.3020012378692629,
        -3.3033206462860109,
        -8.047718048095704,
        2.613342523574829,
        -1.9450116157531739,
        -5.6016364097595219,
        -3.2514514923095705,
        2.6358768939971926,
        -2.7701475620269777,
        -51.268310546875,
        -1.6399227380752564,
        2.8713738918304445,
        -2.575568675994873,
        16.22136116027832,
        -0.6144861578941345,
        1.1793594360351563,
        -1.1297262907028199,
        0.33350682258605959,
        -0.40889859199523928,
        -1.032378077507019,
        -0.8301928043365479,
        1.1416047811508179,
        0.26050055027008059,
        -0.24651195108890534,
        0.8492464423179627,
        1.6455827951431275,
        -0.3968835771083832,
        -0.45891448855400088,
        0.8951287269592285,
        -0.5906439423561096
    ],
    "w2": [
        3.1063578128814699,
        6.5707292556762699,
        -2.251511812210083,
        -14.216021537780762,
        -15.062677383422852,
        -3.577089309692383,
        -9.766902923583985,
        -12.564940452575684,
        3.0380678176879885,
        -5.40123176574707,
        -9.051527976989746,
        3.3348395824432375,
        12.132718086242676,
        16.172687530517579,
        0.27475494146347048,
        -4.1215314865112309,
        -5.957129001617432,
        6.021023273468018,
        5.572879314422607,
        3.2730889320373537,
        4.627939701080322,
        9.667166709899903,
        12.106954574584961,
        -2.4799115657806398,
        12.26800537109375,
        17.69573974609375,
        0.23727315664291383,
        5.199385643005371,
        8.013808250427246,
        -3.341679811477661,
        -5.659215927124023,
        -8.616804122924805,
        2.3637495040893556,
        -3.7342920303344728,
        -5.8988142013549809,
        1.274610996246338,
        -6.042349338531494,
        -3.4890878200531008,
        -4.4651408195495609,
        7.957554340362549,
        7.271829128265381,
        -2.7799370288848879,
        -6.873124599456787,
        -8.654635429382325,
        2.7939109802246095,
        -4.772521018981934,
        -5.002486228942871,
        3.495877265930176
    ],
    "b1": [
        -1.7576398849487305,
        4.413937568664551,
        -1.0794733762741089,
        2.121549606323242,
        2.3291289806365969,
        -1.2715797424316407,
        -2.3131818771362306,
        3.2135043144226076,
        2.7355003356933595,
        -1.6728222370147706,
        1.7811620235443116,
        4.926085472106934,
        -1.978598952293396,
        -2.125262975692749,
        1.5709969997406006,
        -2.5201480388641359
    ],
    "b2": [
        182.65785217285157,
        182.65521240234376,
        182.7152557373047
    ]
}