{
    "inputSize": 4,
    "hiddenSize": 16,
    "outputSize": 5,
    "w1": [
        0.22955064475536347,
        1.4521790742874146,
        -1.5827356576919556,
        1.4657520055770875,
        1.503196358680725,
        0.8458186388015747,
        1.2452290058135987,
        0.5628547668457031,
        0.9280300736427307,
        -1.1219732761383057,
        -1.0310466289520264,
        -0.5372713208198547,
        -0.7383008599281311,
        1.1951258182525635,
        -1.0200934410095215,
        -1.124876618385315,
        -0.5747080445289612,
        -0.16476081311702729,
        4.3246636390686039,
        0.6506761312484741,
        7.063669204711914,
        -0.6626484990119934,
        4.906050682067871,
        4.232239723205566,
        1.1811503171920777,
        -4.610486030578613,
        -2.9881064891815187,
        -0.3564387261867523,
        -0.8140302896499634,
        3.7521939277648927,
        -2.562340497970581,
        -0.7126026153564453,
        -3.3876280784606935,
        2.2875094413757326,
        -1.1481934785842896,
        2.4414937496185304,
        1.7742323875427247,
        -2.7495710849761965,
        3.021491765975952,
        2.785360336303711,
        3.010204315185547,
        -3.428166389465332,
        -3.299976110458374,
        -2.176530599594116,
        2.1680908203125,
        3.4223899841308595,
        -2.2261087894439699,
        -1.3074626922607422,
        -0.8399640321731567,
        -0.9399933218955994,
        0.8644081354141235,
        1.3362653255462647,
        2.1646382808685304,
        -1.4941091537475587,
        2.416604518890381,
        1.9439632892608643,
        1.5020275115966797,
        -1.984181523323059,
        -2.754607915878296,
        0.2050723284482956,
        0.5755117535591126,
        2.1945242881774904,
        -1.4995476007461548,
        0.6532999873161316
    ],
    "w2": [
        -1.5256389379501343,
        0.2130305916070938,
        -0.8096129298210144,
        2.2632617950439455,
        -1.2557519674301148,
        -2.4650933742523195,
        -2.4207611083984377,
        -1.4383001327514649,
        -3.2485172748565676,
        -1.1117290258407593,
        9.938846588134766,
        0.7448897957801819,
        5.791272163391113,
        12.754493713378907,
        9.663178443908692,
        -0.4100852906703949,
        -0.9913212656974793,
        0.12596073746681214,
        -1.5727510452270508,
        0.7198578119277954,
        1.3721787929534913,
        -0.11775268614292145,
        1.400659203529358,
        6.744224548339844,
        1.7596513032913209,
        -0.8282732367515564,
        -0.6694045066833496,
        -1.2672295570373536,
        1.8035109043121338,
        0.015617599710822106,
        2.169994592666626,
        -0.2262820452451706,
        0.3457227647304535,
        4.314652919769287,
        1.9183158874511719,
        1.2060415744781495,
        -0.39101797342300417,
        0.26404011249542239,
        3.8058223724365236,
        1.2296077013015748,
        1.6262969970703126,
        0.09869683533906937,
        0.4140184223651886,
        -1.899918794631958,
        1.6513012647628785,
        -1.4615172147750855,
        -0.19019824266433717,
        -1.3114832639694214,
        -3.952754497528076,
        -2.2308852672576906,
        -2.050442695617676,
        -0.06790179759263993,
        -0.9784874320030212,
        -2.3706376552581789,
        -2.5088210105895998,
        1.4826948642730713,
        1.8907147645950318,
        -0.37891659140586855,
        1.6979033946990967,
        1.0766544342041016,
        -0.6363709568977356,
        -1.847216010093689,
        -0.07491710036993027,
        -1.8336340188980103,
        -1.715522050857544,
        1.6984376907348633,
        1.0705645084381104,
        0.711465060710907,
        2.646354913711548,
        2.502492666244507,
        -0.7262879014015198,
        -0.9019370675086975,
        0.2960268259048462,
        -0.9324083924293518,
        -0.9443665146827698,
        5.305572032928467,
        1.512816309928894,
        1.4569406509399415,
        1.801771879196167,
        6.518091201782227
    ],
    "b1": [
        -0.6382797360420227,
        -0.7729445695877075,
        -4.2897233963012699,
        -0.863957941532135,
        -1.599317193031311,
        -0.6287874579429627,
        -1.5667064189910889,
        -1.44021737575531,
        0.7455890774726868,
        0.9680994153022766,
        1.390275478363037,
        1.5777217149734498,
        -2.1107747554779054,
        -0.45326200127601626,
        0.09880398958921433,
        1.9766123294830323
    ],
    "b2": [
        87.85916137695313,
        84.49175262451172,
        87.24869537353516,
        88.97659301757813,
        87.56082916259766
    ]
}