{
    "inputSize": 4,
    "hiddenSize": 16,
    "outputSize": 5,
    "w1": [
        0.21778886020183564,
        1.4510443210601807,
        -1.5277539491653443,
        1.4705172777175904,
        1.5009406805038453,
        0.8428264856338501,
        1.2427858114242554,
        0.5574244260787964,
        0.9409199357032776,
        -1.1260509490966797,
        -1.042773723602295,
        -0.5388275980949402,
        -0.7362949252128601,
        1.1993513107299805,
        -1.017988920211792,
        -1.12399160861969,
        -0.5675029158592224,
        -0.16405875980854035,
        4.291073322296143,
        0.6477734446525574,
        7.064974784851074,
        -0.660815417766571,
        4.907378673553467,
        4.2354512214660648,
        1.1732354164123536,
        -4.607911586761475,
        -2.9808342456817629,
        -0.3554980158805847,
        -0.8152509927749634,
        3.74953556060791,
        -2.5635673999786379,
        -0.7131496071815491,
        -3.3876280784606935,
        2.2875094413757326,
        -1.1481934785842896,
        2.4414937496185304,
        1.7742323875427247,
        -2.7495710849761965,
        3.021491765975952,
        2.785360336303711,
        3.010204315185547,
        -3.428166389465332,
        -3.299976110458374,
        -2.176530599594116,
        2.1680908203125,
        3.4223899841308595,
        -2.2261087894439699,
        -1.3074647188186646,
        -0.8334823250770569,
        -0.9393453598022461,
        0.8171837329864502,
        1.334123969078064,
        2.1669981479644777,
        -1.4922864437103272,
        2.423074722290039,
        1.9496132135391236,
        1.4958664178848267,
        -1.9828118085861207,
        -2.7497007846832277,
        0.2063697874546051,
        0.5745226144790649,
        2.1940033435821535,
        -1.502886414527893,
        0.6529276371002197
    ],
    "w2": [
        -1.8543261289596558,
        0.23439770936965943,
        -0.7272821068763733,
        2.254518985748291,
        -1.2601454257965088,
        -2.113649606704712,
        -2.444446563720703,
        -1.4460564851760865,
        -3.258331537246704,
        -1.116575837135315,
        9.610350608825684,
        0.7663612961769104,
        5.867536544799805,
        12.745920181274414,
        9.65915298461914,
        -0.06004239618778229,
        -1.0147844552993775,
        0.10715875029563904,
        -1.5813583135604859,
        0.7161045074462891,
        1.7025688886642457,
        -0.1391775906085968,
        1.3179693222045899,
        6.7526116371154789,
        1.7640531063079835,
        -1.1555812358856202,
        -0.64815354347229,
        -1.1818594932556153,
        1.7937675714492798,
        0.01078813150525093,
        2.506399154663086,
        -0.24809196591377259,
        0.26937296986579897,
        4.319925785064697,
        1.9216563701629639,
        1.5401628017425538,
        -0.41271206736564639,
        0.18670524656772614,
        3.8119771480560304,
        1.2331898212432862,
        1.9562571048736573,
        0.07726548612117768,
        0.3322868347167969,
        -1.8916875123977662,
        1.6555554866790772,
        -1.7933628559112549,
        -0.16867046058177949,
        -1.2308919429779053,
        -3.9602532386779787,
        -2.2349419593811037,
        -2.3922054767608644,
        -0.04569537937641144,
        -0.9090961217880249,
        -2.372385025024414,
        -2.5108280181884767,
        1.131460428237915,
        1.9143731594085694,
        -0.37016239762306216,
        1.7074990272521973,
        1.081382393836975,
        -0.2851838767528534,
        -1.8708535432815552,
        -0.08495092391967774,
        -1.8431273698806763,
        -1.7201298475265504,
        2.0291333198547365,
        1.0491243600845338,
        0.6290034055709839,
        2.654618740081787,
        2.5068418979644777,
        -1.0583844184875489,
        -0.880344033241272,
        0.37438881397247317,
        -0.939339816570282,
        -0.9481504559516907,
        4.953866481781006,
        1.5365206003189088,
        1.464297890663147,
        1.8117393255233765,
        6.52299690246582
    ],
    "b1": [
        -0.6213081479072571,
        -0.7712908387184143,
        -4.368839740753174,
        -0.8707945942878723,
        -1.5962358713150025,
        -0.6244691014289856,
        -1.5635805130004883,
        -1.4326503276824952,
        0.7269449234008789,
        0.9741543531417847,
        1.4074044227600098,
        1.5799378156661988,
        -2.113649845123291,
        -0.45952102541923525,
        0.09590873122215271,
        1.9753237962722779
    ],
    "b2": [
        87.50732421875,
        84.51544952392578,
        87.34708404541016,
        88.98658752441406,
        87.56578063964844
    ]
}