{
    "inputSize": 4,
    "hiddenSize": 16,
    "outputSize": 3,
    "w1": [
        -0.04842059314250946,
        -0.004734387621283531,
        0.0002993574598804116,
        -0.02682574838399887,
        0.02703908272087574,
        0.01874152384698391,
        -0.011413699947297573,
        0.04570148512721062,
        -0.041167713701725009,
        -0.048079997301101688,
        0.019628014415502549,
        0.023603755980730058,
        -0.04573100805282593,
        -0.011047237552702427,
        -0.02248687483370304,
        -0.03640013560652733,
        -0.007487541530281305,
        -0.0444827638566494,
        -0.009665368124842644,
        0.005012103356420994,
        0.03570658713579178,
        -0.017537463456392289,
        0.023211946710944177,
        -0.001474729971960187,
        -0.011877991259098053,
        0.034057315438985828,
        -0.004683985374867916,
        -0.040158048272132876,
        0.008540352806448937,
        -0.031313907355070117,
        0.03133309632539749,
        -0.023094475269317628,
        -0.0016474013682454825,
        0.007074045017361641,
        0.00522221066057682,
        0.0075648073107004169,
        -0.03710424154996872,
        -0.0023308026138693096,
        0.03786785155534744,
        -0.027293594554066659,
        -0.014815221540629864,
        0.02431146800518036,
        0.014183235354721547,
        -0.0007376699359156191,
        -0.04396466910839081,
        -0.0492129772901535,
        -0.04261701926589012,
        -0.030850786715745927,
        0.018730439245700837,
        0.04387633129954338,
        0.0022585010156035425,
        0.0031957169994711878,
        -0.04232519492506981,
        0.0049802884459495548,
        -0.031231017783284189,
        0.019116872921586038,
        0.022053664550185205,
        -0.04822591319680214,
        0.03505224362015724,
        0.042981766164302829,
        -0.02657449059188366,
        -0.021255651488900186,
        -0.012838865630328656,
        0.04014619439840317
    ],
    "w2": [
        -0.029413091018795968,
        -0.007277510594576597,
        -0.024748841300606729,
        -0.002805053722113371,
        0.03373055160045624,
        0.019948318600654603,
        -0.04929589107632637,
        0.04484326019883156,
        -0.03235061839222908,
        -0.032371774315834048,
        -0.030172675848007203,
        -0.03860488161444664,
        0.01827930100262165,
        -0.02605038322508335,
        -0.00751006044447422,
        -0.01266501471400261,
        0.026674333959817888,
        -0.023833198472857477,
        -0.00888848677277565,
        0.014664019457995892,
        0.016427593305706979,
        -0.02186262048780918,
        -0.030769281089305879,
        0.04337231069803238,
        -0.011694937944412232,
        0.03610533848404884,
        0.03551114350557327,
        -0.03887832909822464,
        0.012616954743862152,
        0.044886086136102679,
        0.04928089678287506,
        -0.043559569865465167,
        -0.012849666178226471,
        0.024037042632699014,
        -0.021324578672647477,
        0.013312840834259987,
        0.025535864755511285,
        0.010188034735620022,
        -0.014581337571144104,
        0.048782121390104297,
        0.04317222535610199,
        0.007415240164846182,
        -0.014453665353357792,
        0.040046580135822299,
        -0.014847035519778729,
        -0.042626138776540759,
        -0.049162428826093677,
        -0.0018959521548822523
    ],
    "b1": [
        0.00928414799273014,
        -0.0022827424108982088,
        -0.03369256481528282,
        0.047258708626031879,
        0.037632834166288379,
        0.022497113794088365,
        -0.02628139965236187,
        0.042449530214071277,
        -0.026508230715990068,
        -0.018121151253581048,
        -0.041110116988420489,
        0.047625213861465457,
        0.03443717584013939,
        0.03958243876695633,
        -0.017773693427443506,
        -0.027236701920628549
    ],
    "b2": [
        -0.03165266662836075,
        -0.0366131067276001,
        0.02424478717148304
    ],
    "wValue": [
        0.0442422591149807,
        0.045274194329977038,
        0.029177099466323854,
        0.011799119412899018,
        -0.03351370245218277,
        0.04074813798069954,
        -0.0076706064864993099,
        0.021491793915629388,
        -0.04098764806985855,
        0.042591046541929248,
        -0.020815858617424966,
        0.008219346404075623,
        -0.019068801775574685,
        0.03526776656508446,
        -0.012592906132340432,
        0.0018375226063653827
    ],
    "bValue": 0.0
}