{
    "inputSize": 4,
    "hiddenSize": 16,
    "outputSize": 5,
    "w1": [
        -0.866492509841919,
        -0.6696540117263794,
        -0.3204137086868286,
        0.6244096159934998,
        0.5998849272727966,
        -0.993796169757843,
        0.26334142684936526,
        0.5568838715553284,
        0.1994548887014389,
        -0.839657187461853,
        0.4414112865924835,
        0.015957176685333253,
        -0.48128432035446169,
        -0.8303972482681274,
        -0.3434842526912689,
        0.03814224898815155,
        -0.3371855914592743,
        0.7730778455734253,
        -0.26295900344848635,
        -0.7041754126548767,
        -0.21413204073905946,
        0.26574277877807619,
        0.12646956741809846,
        0.9675854444503784,
        -0.8244528770446777,
        0.6070862412452698,
        -0.403071790933609,
        -0.8675782680511475,
        0.8141483664512634,
        0.7673202753067017,
        0.27264484763145449,
        0.07664261758327484,
        -0.46925997734069826,
        0.6656529307365418,
        0.5045477747917175,
        -0.34233781695365908,
        0.9054958820343018,
        -0.3770100474357605,
        -0.1252528429031372,
        0.8241006731987,
        -0.34485629200935366,
        -0.8168421983718872,
        0.23455321788787843,
        -0.2945075035095215,
        -0.43292129039764407,
        -0.3418737053871155,
        -0.6796417832374573,
        -0.7805814743041992,
        0.3422304689884186,
        0.7489392757415772,
        -0.6550287008285523,
        -0.703890323638916,
        -0.23568880558013917,
        0.8288710117340088,
        0.5069852471351624,
        -0.21985124051570893,
        0.33998191356658938,
        -0.39860209822654726,
        0.6362053751945496,
        -0.90547776222229,
        0.19477783143520356,
        0.6399327516555786,
        0.41878366470336916,
        0.5127350091934204
    ],
    "w2": [
        0.726067841053009,
        0.2842349708080292,
        -0.34349238872528078,
        0.8235809803009033,
        -0.07696533203125,
        -0.570926308631897,
        0.03563791885972023,
        0.603606104850769,
        -0.28666141629219057,
        0.18673980236053468,
        -0.348145455121994,
        0.2713824212551117,
        0.3758676052093506,
        0.2847307622432709,
        -0.20419850945472718,
        0.23352643847465516,
        -0.05110219866037369,
        0.88303542137146,
        0.3514907956123352,
        0.7413405776023865,
        -0.13304999470710755,
        -0.43681880831718447,
        -0.09201555699110031,
        -0.6273568272590637,
        0.5365096926689148,
        1.1039551496505738,
        -0.10612711310386658,
        -0.6743582487106323,
        0.43333062529563906,
        0.5855600237846375,
        0.9051586389541626,
        -0.3483371138572693,
        -0.1893565058708191,
        0.6447414755821228,
        -0.006997156888246536,
        0.6132617592811585,
        0.20218409597873689,
        -0.3876328766345978,
        0.6270570755004883,
        0.08847833424806595,
        -1.0088328123092652,
        -0.3058539927005768,
        1.0114314556121827,
        -0.4214938282966614,
        -0.5730409622192383,
        -0.5207753777503967,
        -0.11218132078647614,
        0.8318877816200256,
        0.06821053475141525,
        -0.0635065957903862,
        0.3096391260623932,
        -0.18724143505096436,
        -0.5439253449440002,
        -0.2616651952266693,
        0.6832155585289002,
        0.02502840757369995,
        0.16694551706314088,
        -0.6720735430717468,
        -1.1082053184509278,
        -0.042289622128009799,
        0.11744481325149536,
        0.27820324897766116,
        -0.5862457752227783,
        -0.07216958701610565,
        0.10245582461357117,
        -0.42311331629753115,
        -0.3287319540977478,
        1.119927167892456,
        -0.5256788730621338,
        -0.05575928837060928,
        -0.7550649046897888,
        0.3724660575389862,
        -0.45845258235931399,
        -0.3427940905094147,
        0.751056969165802,
        -0.25551313161849978,
        -0.3175031542778015,
        -0.7239832282066345,
        0.5332684516906738,
        0.059628233313560489
    ],
    "b1": [
        0.0038700674194842579,
        -0.12564513087272645,
        -0.03209802880883217,
        0.1902732253074646,
        0.05424584075808525,
        -0.0372307151556015,
        0.7022755742073059,
        0.05890005826950073,
        0.027285151183605195,
        0.08094153553247452,
        -0.08781707286834717,
        0.057717882096767429,
        -0.12346498668193817,
        -0.2233174741268158,
        -0.3799692988395691,
        0.0833846926689148
    ],
    "b2": [
        0.2771024703979492,
        0.22517424821853639,
        0.313387930393219,
        0.1826021671295166,
        0.042839352041482928
    ]
}