{
    "inputSize": 4,
    "hiddenSize": 16,
    "outputSize": 5,
    "w1": [
        -0.8389900922775269,
        16.396621704101564,
        -2.9866886138916017,
        -0.6239214539527893,
        21.630041122436525,
        -4.6802077293396,
        12.869577407836914,
        2.497389554977417,
        1.9998626708984376,
        -2.4539337158203127,
        -4.251193046569824,
        -12.986160278320313,
        0.42618241906166079,
        2.818230390548706,
        -7.4244513511657719,
        -9.291767120361329,
        15.040218353271485,
        18.10181427001953,
        -0.12455300241708756,
        3.757078170776367,
        34.40888977050781,
        -1.2116371393203736,
        -10.882349967956543,
        -12.779999732971192,
        -11.064534187316895,
        0.9013547897338867,
        -6.926647663116455,
        -4.674378871917725,
        -4.165040969848633,
        -1.924778699874878,
        -0.2884269654750824,
        -13.888427734375,
        27.659757614135743,
        15.008431434631348,
        22.939348220825197,
        -16.25935173034668,
        -22.607328414916993,
        34.01773452758789,
        30.742408752441408,
        63.90639877319336,
        -20.611820220947267,
        -64.78815460205078,
        22.67840576171875,
        43.69617462158203,
        11.408679962158204,
        -19.556211471557618,
        18.75568199157715,
        17.386852264404298,
        5.2218546867370609,
        10.136051177978516,
        1.4134422540664673,
        3.5637717247009279,
        16.245542526245118,
        0.24186024069786073,
        -2.9708664417266847,
        -15.704444885253907,
        0.09909914433956146,
        0.21282701194286347,
        -5.742366313934326,
        9.55655288696289,
        -1.7823542356491089,
        0.5375961661338806,
        -4.226506233215332,
        -2.525545120239258
    ],
    "w2": [
        0.5577978491783142,
        -5.081589698791504,
        11.3340482711792,
        2.7783024311065676,
        -2.7383923530578615,
        6.867002964019775,
        9.441813468933106,
        5.001676559448242,
        -3.524096965789795,
        8.01794719696045,
        -0.829475462436676,
        0.5802473425865173,
        1.159461498260498,
        -12.556514739990235,
        -5.163427352905273,
        -0.5426731705665588,
        -2.599740505218506,
        6.58745813369751,
        -0.04943959787487984,
        -2.590068817138672,
        7.655948162078857,
        7.656888484954834,
        16.42314338684082,
        19.52838706970215,
        18.53750991821289,
        -6.4212727546691898,
        -3.6913115978240969,
        0.8688925504684448,
        -17.787439346313478,
        -6.933412551879883,
        3.080728054046631,
        -9.702378273010254,
        -1.2985875606536866,
        -2.2240185737609865,
        -2.84313702583313,
        -4.559792518615723,
        -8.818731307983399,
        -4.995978355407715,
        -18.543771743774415,
        8.732823371887207,
        6.464762210845947,
        -8.553082466125489,
        -3.7767741680145265,
        15.988677978515625,
        0.6398640871047974,
        -0.19748656451702119,
        -12.372796058654786,
        10.953068733215332,
        7.311791896820068,
        2.8577120304107668,
        -12.738723754882813,
        -4.913171768188477,
        -6.3865203857421879,
        -19.953641891479493,
        -14.073512077331543,
        11.382403373718262,
        3.9462990760803224,
        9.22355842590332,
        11.320450782775879,
        10.894289016723633,
        -3.793394088745117,
        2.4348816871643068,
        -9.222073554992676,
        -10.274495124816895,
        -4.746014595031738,
        -0.7763554453849793,
        -5.69773006439209,
        0.6715152859687805,
        7.599300861358643,
        -10.308215141296387,
        -1.7354927062988282,
        4.582243919372559,
        -3.73417067527771,
        -10.045759201049805,
        5.701024055480957,
        -1.8201773166656495,
        10.338418960571289,
        -2.4854040145874025,
        -11.597644805908204,
        -2.6375510692596437
    ],
    "b1": [
        32.86260223388672,
        44.57350158691406,
        -6.769097328186035,
        9.116609573364258,
        43.28070831298828,
        8.305229187011719,
        -27.939695358276368,
        -50.16830062866211,
        -15.370522499084473,
        11.023798942565918,
        -19.935033798217775,
        13.862865447998047,
        -8.114526748657227,
        -11.11662769317627,
        -3.327538251876831,
        -14.143312454223633
    ],
    "b2": [
        1060.3602294921875,
        1039.3319091796875,
        1020.12744140625,
        1032.6954345703125,
        1051.501953125
    ]
}