{
    "inputSize": 4,
    "hiddenSize": 16,
    "outputSize": 5,
    "w1": [
        -0.0709671899676323,
        0.01775493659079075,
        -0.030051736161112787,
        -0.044075652956962588,
        0.01404336653649807,
        -0.08428484201431275,
        0.031584449112415317,
        -0.04239705204963684,
        0.025828542187809945,
        -0.036406390368938449,
        -0.10112915188074112,
        0.03752893581986427,
        -0.03375354781746864,
        0.046431634575128558,
        0.00504347262904048,
        0.04873206093907356,
        -0.11416454613208771,
        -0.0005632273969240487,
        -0.021501127630472184,
        -0.13023020327091218,
        0.05149303376674652,
        -0.07894057780504227,
        -0.06511133164167404,
        -0.04413345828652382,
        0.08309483528137207,
        -0.11799605190753937,
        -0.08271397650241852,
        -0.0057733082212507729,
        0.05735374242067337,
        0.02675439976155758,
        0.04710197076201439,
        0.008192691020667553,
        -0.05631132423877716,
        -0.002866517985239625,
        -0.03619421273469925,
        -0.042398590594530109,
        -0.024324636906385423,
        -0.02526601031422615,
        -0.03624003380537033,
        0.014568611048161984,
        0.049542464315891269,
        -0.061604563146829608,
        -0.010752223432064057,
        -0.031038418412208558,
        -0.005033670458942652,
        -0.03299973905086517,
        0.016056615859270097,
        -0.019802827388048173,
        -0.10523666441440582,
        -0.01577385887503624,
        -0.015807926654815675,
        -0.07769902795553208,
        0.06822580844163895,
        -0.07096333056688309,
        -0.05431096628308296,
        -0.08439415693283081,
        0.1005951389670372,
        -0.08478465676307678,
        -0.15110428631305695,
        -0.02524425834417343,
        0.010757649317383767,
        0.011527147144079209,
        0.04601369425654411,
        0.056255120784044269
    ],
    "w2": [
        0.03529373183846474,
        0.03743847832083702,
        0.021746128797531129,
        0.024349253624677659,
        0.022692149505019189,
        -0.03839418292045593,
        0.03723088279366493,
        -0.01730845309793949,
        -0.035797540098428729,
        0.027269583195447923,
        -0.002060957718640566,
        0.013859281316399575,
        -0.024121738970279695,
        0.055992357432842258,
        0.014795809984207154,
        -0.02303161844611168,
        0.01584901101887226,
        0.031019611284136773,
        0.045001037418842319,
        0.033126480877399448,
        0.041172269731760028,
        -0.0388064943253994,
        0.004733608104288578,
        0.002920679049566388,
        -0.025273002684116365,
        0.022870374843478204,
        0.04372270032763481,
        0.03566695377230644,
        -0.009711328893899918,
        0.04019792377948761,
        0.01438503060489893,
        -0.004208259284496307,
        0.013344240374863148,
        0.04229477047920227,
        0.0005340299685485661,
        0.009413637220859528,
        -0.010158540681004525,
        0.02931739017367363,
        0.0046341298148036,
        0.01214313693344593,
        -0.02247745916247368,
        -0.021414244547486306,
        -0.005331645254045725,
        -0.037171173840761188,
        -0.01799413189291954,
        0.02783307060599327,
        -0.00014451006427407265,
        0.013980396091938019,
        0.039793048053979877,
        0.06251400709152222,
        0.040068838745355609,
        0.01815548725426197,
        0.0033189626410603525,
        0.0479411706328392,
        0.0517381951212883,
        0.03243646398186684,
        -0.006854676641523838,
        -0.025894541293382646,
        0.006702296901494265,
        0.049978550523519519,
        -0.02914244681596756,
        0.05593472346663475,
        0.04672284051775932,
        -0.021975496783852578,
        -0.03489546477794647,
        -0.03747665137052536,
        -0.03790485858917236,
        -0.007776576094329357,
        0.01601834036409855,
        0.050522178411483768,
        0.01390957459807396,
        0.003797652665525675,
        -0.057713452726602557,
        -0.04990183934569359,
        -0.03039577603340149,
        0.0020058497320860626,
        0.00367872416973114,
        -0.01931522786617279,
        0.056994806975126269,
        0.004153949208557606
    ],
    "b1": [
        -0.164109468460083,
        0.009578818455338478,
        0.021797046065330507,
        -0.11048469692468643,
        0.08131751418113709,
        -0.06799381226301193,
        0.0010842245537787676,
        -0.08649752289056778,
        0.14877599477767945,
        -0.06630630046129227,
        -0.13927757740020753,
        -0.03019186295568943,
        0.020536426454782487,
        0.055481988936662677,
        0.03756324201822281,
        0.015048930421471596
    ],
    "b2": [
        -0.029781416058540345,
        -0.04805991053581238,
        -0.06577601283788681,
        -0.03957734629511833,
        -0.020085768774151803
    ],
    "wValue": [
        -0.09836132079362869,
        -0.00966726429760456,
        -0.0008389137801714242,
        -0.07846694439649582,
        -0.06830384582281113,
        -0.018771173432469369,
        -0.057978201657533649,
        0.05146430432796478,
        0.05545315146446228,
        -0.07260890305042267,
        -0.05876486375927925,
        -0.08758249133825302,
        -0.08710910379886627,
        -0.031525325030088428,
        0.08786388486623764,
        0.00940738432109356
    ],
    "bValue": 0.16785120964050294
}