{
    "inputSize": 4,
    "hiddenSize": 16,
    "outputSize": 5,
    "w1": [
        -0.8081375360488892,
        -0.6785102486610413,
        -0.28733617067337038,
        0.65728759765625,
        0.5592717528343201,
        -0.9829778075218201,
        0.30018216371536257,
        0.6276946663856506,
        0.15978215634822846,
        -0.8262152075767517,
        0.4173341393470764,
        -0.060033898800611499,
        -0.5005168914794922,
        -0.8465127348899841,
        -0.3829723596572876,
        0.08513709902763367,
        -0.3727225363254547,
        0.7784715294837952,
        -0.28310272097587588,
        -0.7241972088813782,
        -0.18939904868602754,
        0.2591545581817627,
        0.10403458029031754,
        0.9244629144668579,
        -0.8002930283546448,
        0.5989001393318176,
        -0.38840946555137637,
        -0.8213013410568237,
        0.8258607387542725,
        0.7771317362785339,
        0.2966919243335724,
        0.04802370071411133,
        -0.46925997734069826,
        0.6656529307365418,
        0.5045477747917175,
        -0.34233781695365908,
        0.9054958820343018,
        -0.3770100474357605,
        -0.1252528429031372,
        0.8241006731987,
        -0.34485629200935366,
        -0.8168421983718872,
        0.23455321788787843,
        -0.2945075035095215,
        -0.43292129039764407,
        -0.3418737053871155,
        -0.6796417832374573,
        -0.7805814743041992,
        0.2803550958633423,
        0.7583292722702026,
        -0.6901019215583801,
        -0.738753616809845,
        -0.19262534379959107,
        0.8174003958702087,
        0.4679222106933594,
        -0.29493430256843569,
        0.3820476233959198,
        -0.4128549098968506,
        0.6617348194122315,
        -0.8249020576477051,
        0.215170755982399,
        0.6570190787315369,
        0.4606538414955139,
        0.46290433406829836
    ],
    "w2": [
        0.726067841053009,
        0.2964184880256653,
        -0.3595728278160095,
        0.722442090511322,
        -0.09497033059597016,
        -0.570926308631897,
        0.05482909828424454,
        0.5781357884407044,
        -0.4421103596687317,
        0.1545596867799759,
        -0.348145455121994,
        0.26135486364364626,
        0.3895755708217621,
        0.36478710174560549,
        -0.18493573367595673,
        0.23352643847465516,
        -0.06938450783491135,
        0.906955897808075,
        0.4980955719947815,
        0.7733840942382813,
        -0.13304999470710755,
        -0.447910338640213,
        -0.07825561612844467,
        -0.5369849801063538,
        0.5522810816764832,
        1.1039551496505738,
        -0.08623196184635163,
        -0.7007945775985718,
        0.27186882495880129,
        0.5523170828819275,
        0.9051586389541626,
        -0.3323701322078705,
        -0.21052932739257813,
        0.5141914486885071,
        -0.032635778188705447,
        0.6132617592811585,
        0.1972787082195282,
        -0.3812209963798523,
        0.6623392701148987,
        0.10122726112604141,
        -1.0088328123092652,
        -0.3090948462486267,
        1.0171313285827637,
        -0.39082077145576479,
        -0.5684893131256104,
        -0.5207753777503967,
        -0.09995948523283005,
        0.8157458305358887,
        -0.03171566128730774,
        -0.0821995958685875,
        0.3096391260623932,
        -0.18787409365177155,
        -0.5450830459594727,
        -0.25809070467948916,
        0.6811244487762451,
        0.02502840757369995,
        0.15133769810199738,
        -0.6511845588684082,
        -0.978947103023529,
        -0.01827744022011757,
        0.11744481325149536,
        0.2924564778804779,
        -0.6052064895629883,
        -0.18690384924411775,
        0.07747291028499603,
        -0.42311331629753115,
        -0.3099144399166107,
        1.0949974060058594,
        -0.6778981685638428,
        -0.08737863600254059,
        -0.7550649046897888,
        0.38066670298576357,
        -0.4708918333053589,
        -0.40969595313072207,
        0.7346447706222534,
        -0.25551313161849978,
        -0.30933457612991335,
        -0.7349153161048889,
        0.4646221101284027,
        0.047615423798561099
    ],
    "b1": [
        -0.07983580231666565,
        -0.11294089257717133,
        -0.07954571396112442,
        0.14311112463474275,
        0.11250288039445877,
        -0.05274898186326027,
        0.649429976940155,
        -0.04267336055636406,
        0.08419253677129746,
        0.06166023015975952,
        -0.05327998474240303,
        0.16672153770923615,
        -0.09587691724300385,
        -0.20020459592342378,
        -0.32332709431648257,
        0.015974011272192
    ],
    "b2": [
        0.2771024703979492,
        0.24785968661308289,
        0.2833364009857178,
        -0.0011690784012898803,
        0.004783769603818655
    ]
}