{
    "inputSize": 4,
    "hiddenSize": 16,
    "outputSize": 3,
    "w1": [
        0.8250654339790344,
        0.40740546584129336,
        0.8178884387016296,
        -0.8725600242614746,
        -0.7371214628219605,
        -0.018029531463980676,
        -0.9541478157043457,
        0.44752538204193118,
        0.7829091548919678,
        -0.3891528248786926,
        0.6106131076812744,
        -0.4040517807006836,
        0.8719769716262817,
        -0.3543311357498169,
        0.41010281443595889,
        -0.7792951464653015,
        0.4458976089954376,
        0.9852887392044067,
        -0.2417571246623993,
        0.20603539049625398,
        -0.4991765022277832,
        0.46592754125595095,
        0.8391565680503845,
        -0.07666805386543274,
        -0.6344836950302124,
        -0.6707214117050171,
        -0.44775867462158205,
        0.14700722694396974,
        0.9459218978881836,
        0.34156784415245058,
        0.2536623477935791,
        -0.7057607173919678,
        0.485529363155365,
        -0.6300950050354004,
        0.8960141539573669,
        0.40409019589424136,
        -0.16306209564208985,
        0.10316253453493118,
        -0.4234635531902313,
        -0.32781022787094118,
        0.6324681043624878,
        -0.25986117124557497,
        -0.023559484630823137,
        -0.5617782473564148,
        0.9198501110076904,
        0.7506342530250549,
        -0.4707297384738922,
        0.8203244805335999,
        0.36000731587409975,
        -0.3291069567203522,
        -0.5707445740699768,
        0.28582698106765749,
        0.6050154566764832,
        -0.8655994534492493,
        -0.10488537698984146,
        -0.7686795592308044,
        0.5420529842376709,
        -0.18085135519504548,
        0.5434533357620239,
        0.6941305994987488,
        -0.9328241348266602,
        -0.2094358503818512,
        0.3997446298599243,
        -0.701358437538147
    ],
    "w2": [
        0.001822561607696116,
        0.16712349653244019,
        -0.08084715157747269,
        0.46704697608947756,
        -0.07471433281898499,
        -0.8414567708969116,
        0.02733646333217621,
        -0.6520671248435974,
        0.20746617019176484,
        -0.906398355960846,
        0.27466192841529848,
        0.4715609848499298,
        -0.21200448274612428,
        -0.08018916845321655,
        -0.06844711303710938,
        -0.43235230445861819,
        0.7901231646537781,
        -0.19287118315696717,
        0.9120542407035828,
        0.173721581697464,
        0.07403141260147095,
        0.8860775232315064,
        0.014137602411210537,
        0.2850898206233978,
        0.4477020502090454,
        0.5973215103149414,
        0.44327542185783389,
        -0.941477358341217,
        0.6012729406356812,
        0.038463152945041659,
        -0.3771726191043854,
        -0.041159674525260928,
        0.5363619923591614,
        -0.34697508811950686,
        0.5183974504470825,
        -0.22179093956947328,
        -0.24763214588165284,
        0.23766902089118958,
        0.03426007553935051,
        0.2783147692680359,
        0.3462766110897064,
        -0.945159912109375,
        -0.853888750076294,
        0.724789023399353,
        -0.2424144446849823,
        0.33604320883750918,
        0.3744775652885437,
        -0.6973617672920227
    ],
    "b1": [
        -0.02875690348446369,
        0.0355105921626091,
        0.05410066246986389,
        -0.1682419627904892,
        -0.04307461529970169,
        -0.31023162603378298,
        -0.008222313597798348,
        0.07696808129549027,
        -0.03547237813472748,
        -0.28675389289855959,
        -0.23752041161060334,
        -0.10814429819583893,
        -0.01830773986876011,
        -0.07675463706254959,
        -0.21349239349365235,
        -0.07743923366069794
    ],
    "b2": [
        0.2316279262304306,
        0.33506301045417788,
        0.3817227780818939
    ]
}